{"conv2d_weights": ["184394366976", "-267207622656", "219353137152", "208481599488", "-219764211712", "-183315300352", "339950665728", "282874871808", "-144962928640", "-80141778944", "199201030144", "-187378532352", "-295139704832", "-311232561152", "-354615951360", "-54789582848", "217230016512", "-9774701568", "-103712448512", "-107839209472", "-247119724544", "243839320064", "-37189386240", "185264734208", "76683018240", "234704994304", "-160638763008", "-152709021696", "218176585728", "255135268864", "-23746316288", "-57241354240", "369947934720", "30056615936", "-34614853632", "-334456061952"], "conv2d_bias": ["0", "0", "0", "0"], "batch_normalization_a": ["77997170688", "97706655744", "60820811776", "78400389120"], "batch_normalization_b": ["-1714911074414821472468992", "1074748886966078361567232", "-280362047170740203028480", "2347685412919637945876480"], "dense_weights": ["1150146183168", "-849780867072", "814887796736", "4974522880", "-855662854144", "861554409472", "-752278372352", "-217154404352"], "dense_bias": ["-55472336709499368078751805169340812694732843646745615269888", "55472377687692646958691608919639985002998534414200939216896"]}